{
  "W1": [
    [
      -0.1524130524978248,
      0.22773847973346656,
      0.19660467336100687,
      -0.16851920599923592,
      -0.28280896427221436,
      0.021437892866864854,
      0.04659502224632459,
      0.15954886633271056,
      -0.1714816420062577,
      -0.27350905093071837
    ],
    [
      1.0813382196686827,
      -1.0326461839817431,
      -1.3748300285550727,
      0.7372545020440477,
      0.4854224619699673,
      -0.3118695951280713,
      0.5220395335346324,
      -0.45597283547942075,
      -0.026169084782489343,
      1.1826901745890588
    ],
    [
      0.3209649343640297,
      -0.46732705713508566,
      -0.4468015020389118,
      0.2523683986251698,
      0.10905920445854131,
      -0.05025393000821304,
      0.08507675009445423,
      -0.003283564844108325,
      -0.06270803682898991,
      0.41043309806429845
    ],
    [
      -1.0120164171212915,
      1.2331154595862421,
      1.4405154588413336,
      -0.831556007283573,
      -0.7299254438436178,
      0.33751464204397064,
      -0.5377715696562341,
      0.40923617599423395,
      -0.011891919953211724,
      -1.2274032109841595
    ],
    [
      0.18965223091856837,
      -0.4468122208241437,
      -0.4671775516626669,
      0.22197791920592713,
      0.38645281799563297,
      -0.11455358386054285,
      0.14006768880255635,
      -0.09156110948225953,
      0.06384038786682189,
      0.3404720757076262
    ],
    [
      -0.08324438919038375,
      0.08865542990512291,
      0.07591290036957035,
      -0.10910607716499854,
      -0.11373741049840232,
      0.18591149081194286,
      -0.2062516335256445,
      0.18155694093100666,
      -0.23006375976856488,
      -0.06065543072595031
    ]
  ],
  "b1": [
    [
      0.3833002219635395,
      -0.5426498800415359,
      -0.6035614000259941,
      0.3098722816659006,
      0.22133453684357277,
      -0.03654211672758869,
      0.19800070439309986,
      -0.15131742639059534,
      0.012126593289026606,
      0.5278475429655825
    ]
  ],
  "W2": [
    [
      -1.2321439747458465,
      1.2506978330666765
    ],
    [
      1.4143300572448883,
      -1.4723183711100152
    ],
    [
      1.7857891451870997,
      -1.6163741697230278
    ],
    [
      -1.105412691759424,
      0.897789948190532
    ],
    [
      -0.8014682555809841,
      0.8576700811275474
    ],
    [
      0.41534793188255403,
      -0.3214367400621321
    ],
    [
      -0.7862134993805484,
      0.6439450823024484
    ],
    [
      0.4860412134420381,
      -0.6731247420737243
    ],
    [
      -0.250133844311962,
      0.09212302816952335
    ],
    [
      -1.62597848781854,
      1.3786724793518343
    ]
  ],
  "b2": [
    [
      -0.2224615316401586,
      0.2224615316401586
    ]
  ],
  "metrics": {
    "accuracy": 0.900990099009901,
    "precision": 0.9375,
    "recall": 0.8653846153846154,
    "f1_score": 0.9
  }
}