{
  "W1": [
    [
      -0.08684870741134809,
      0.22371935263962686,
      0.04865160213431126,
      -0.08211811261052546,
      -0.23284153943590097,
      -0.21318382453223514,
      0.02170364231820254,
      -0.23326545489900183,
      -0.04860606441917607,
      0.2483801869301864
    ],
    [
      0.22327502604443747,
      -0.6979445669283921,
      -0.6194106752692876,
      0.635824442348335,
      1.3129222286061168,
      0.8442139512939246,
      -0.4033816170473811,
      1.0867252331670147,
      0.6993574211719639,
      -1.1994184942056079
    ],
    [
      -0.04682006529619266,
      -0.36863342260954,
      -0.06179385331190421,
      -0.00251942664614286,
      0.4934235713020738,
      0.29504975224329094,
      0.043469766090173084,
      0.2684940872689606,
      0.33270158752754225,
      -0.38615170614620214
    ],
    [
      -0.15289042543355225,
      0.9538382729798213,
      0.8047654911633815,
      -0.5912884482329311,
      -1.101153203234467,
      -1.1415651011499814,
      0.18169269514948674,
      -1.3917159654652065,
      -0.48292577359603167,
      1.2328486895529782
    ],
    [
      0.029339156428990393,
      -0.2608510660987713,
      -0.16339758808654128,
      0.2084000484802096,
      0.3402587860672021,
      0.354644505323138,
      3.775063053376344e-05,
      0.5135237215431,
      0.19355816464816114,
      -0.33674489444976585
    ],
    [
      -0.3318187673583345,
      0.09923981585545687,
      0.14278628968442342,
      -0.15776113154556648,
      -0.06978481754293019,
      -0.06606866520067184,
      0.23708839503323897,
      -0.07338066937635881,
      -0.1822271326385336,
      0.05894763937155137
    ]
  ],
  "b1": [
    [
      0.11526680005912754,
      -0.3548771013623346,
      -0.22674207189793116,
      0.16705617849290272,
      0.4423916571577277,
      0.3274207970986235,
      -0.04567585130718713,
      0.5429718886753498,
      0.2261832037072493,
      -0.4916402348948433
    ]
  ],
  "W2": [
    [
      -0.408880121024557,
      0.4891822117620762
    ],
    [
      1.0881641168690943,
      -1.1626824885034983
    ],
    [
      0.995035605038258,
      -0.7964746566114229
    ],
    [
      -0.7668805832043134,
      0.6737718778234651
    ],
    [
      -1.3657940826911033,
      1.5001923066311615
    ],
    [
      -1.190667831615746,
      1.1534897137963371
    ],
    [
      0.24060747389738726,
      -0.5992187349699094
    ],
    [
      -1.5126901680780014,
      1.5288342123648988
    ],
    [
      -0.7802247713154942,
      0.8210249423790164
    ],
    [
      1.6121647394573189,
      -1.413878418742044
    ]
  ],
  "b2": [
    [
      -0.006017445315903588,
      0.0060174453159034524
    ]
  ],
  "metrics": {
    "accuracy": 0.8811881188118812,
    "precision": 0.9347826086956522,
    "recall": 0.8269230769230769,
    "f1_score": 0.8775510204081632
  }
}