{
  "W1": [
    [
      0.1268077814270939,
      0.38016442218970864,
      0.1444533159036655,
      -0.09060047998984797,
      -0.17999006666355277,
      -0.11311980517815928,
      -0.025155979753185915,
      -0.20029961932488632,
      -0.07560880291116559,
      -0.2307850521261598
    ],
    [
      -0.9104148963103129,
      -1.596887466589839,
      0.027492222728975526,
      0.9925966603247952,
      0.26222890035572666,
      0.900910328574851,
      0.691633320111429,
      0.8413861594365941,
      0.2885158777581406,
      0.6135245492924317
    ],
    [
      -0.12289226953265371,
      -0.589883624358349,
      -0.030043424260844522,
      0.22904735908238275,
      0.18747723334078711,
      0.20380859689745198,
      0.11020519554895476,
      0.2844407795825835,
      0.16074828400807722,
      0.28003523592585067
    ],
    [
      0.7126069891186558,
      1.6205998337533485,
      0.11238892305371564,
      -0.905884790339264,
      -0.41879996521026125,
      -0.9877865896530303,
      -0.744924899591121,
      -1.3286553839665662,
      -0.4993455862154647,
      -0.716381755539631
    ],
    [
      -0.20776508433850266,
      -0.5851238814313019,
      -0.005964174397569134,
      0.2625671793262029,
      0.02651517653104052,
      0.28277227097396807,
      0.3740222973614106,
      0.2946153218680904,
      0.17523934895688698,
      0.14018807971299013
    ],
    [
      0.13103807850092777,
      0.04257261039393092,
      0.17627809962881116,
      -0.11604346746056923,
      -0.21347112296971352,
      -0.11343212879003213,
      -0.1717069819645111,
      -0.07030572114498097,
      -0.24590163450499802,
      -0.1330093693238511
    ]
  ],
  "b1": [
    [
      -0.25698527286651235,
      -0.6797637685535864,
      0.006940262860007824,
      0.30391539448607846,
      0.06670026597995155,
      0.34810686343714753,
      0.23178240974533404,
      0.4160254712734487,
      0.13418558318318138,
      0.2711132660712106
    ]
  ],
  "W2": [
    [
      1.1502016955289749,
      -1.0301519826549765
    ],
    [
      2.113237647749677,
      -2.152845531247269
    ],
    [
      0.2223858300496153,
      -0.22684536182065435
    ],
    [
      -1.1898271453991562,
      0.9405568185413082
    ],
    [
      -0.4944354239655756,
      0.3978030109468062
    ],
    [
      -1.0791946207068621,
      1.1123430922341644
    ],
    [
      -0.8768011808524885,
      0.8480610005799997
    ],
    [
      -1.0777911331423324,
      1.4676825263288988
    ],
    [
      -0.46853882883285847,
      0.6782795040984994
    ],
    [
      -0.9719356259779699,
      0.7604114308342603
    ]
  ],
  "b2": [
    [
      0.27178166914161334,
      -0.2717816691416136
    ]
  ],
  "metrics": {
    "accuracy": 0.8811881188118812,
    "precision": 0.9347826086956522,
    "recall": 0.8269230769230769,
    "f1_score": 0.8775510204081632
  }
}