{
  "W1": [
    [
      0.24335846936302302,
      0.10892019889736244,
      -0.04472035509209902,
      -0.27353127550383377,
      0.12086379273954392,
      0.2199206653124666,
      -0.2075018143128443,
      0.25780833021113975,
      -0.1298403639445564,
      -0.0800842364627024
    ],
    [
      -0.7545397096541386,
      -0.46723489966823584,
      0.484281143796215,
      0.8454535688015276,
      -0.3765861314434097,
      -0.2567551407476243,
      1.1942981160920272,
      -1.1328523487512918,
      1.1049969939620035,
      1.1327728529309666
    ],
    [
      -0.2300843275422723,
      -0.1308168002397835,
      0.15846192680663343,
      0.21448950289694832,
      -0.062380897029943136,
      -0.020116886828744643,
      0.532104179269896,
      -0.4640507126857659,
      0.32071357149722773,
      0.38020183255367346
    ],
    [
      0.948681493838918,
      0.27448184795220776,
      -0.4658896245430324,
      -1.0772443634951514,
      0.3744456106820211,
      0.31215335311095,
      -1.2599690821635274,
      1.3205656178932983,
      -1.0664251767551014,
      -0.9829631913095939
    ],
    [
      -0.28014190092274616,
      0.027137331933092593,
      0.24305391671088522,
      0.27481391774274405,
      -0.15990045914969264,
      0.17580607291355188,
      0.400137463701748,
      -0.45711625353174234,
      0.42242216490178985,
      0.25575681875190304
    ],
    [
      0.07170181138506951,
      0.22343835012897295,
      -0.19062820618476012,
      -0.05519672730637767,
      0.22907967706476712,
      0.17559216114621665,
      -0.07792604538774985,
      0.050677391874091475,
      -0.10808061327292462,
      -0.11163285914281204
    ]
  ],
  "b1": [
    [
      -0.2836414242693096,
      -0.17227932108146235,
      0.12466326942458761,
      0.3582848268597092,
      -0.1811876845055389,
      -0.046855100655789565,
      0.5338468289894586,
      -0.4648110249919842,
      0.4570739901942813,
      0.40090229314613063
    ]
  ],
  "W2": [
    [
      1.1022897034179566,
      -0.9661246574985153
    ],
    [
      0.6055269147300535,
      -0.5901701089849877
    ],
    [
      -0.6196918344513234,
      0.6142708169402331
    ],
    [
      -1.151760725365265,
      1.1773824690056993
    ],
    [
      0.5921155305976549,
      -0.6140027805046815
    ],
    [
      0.377955623657092,
      -0.39179119611916047
    ],
    [
      -1.5382076788276413,
      1.54093356619236
    ],
    [
      1.5015905306600628,
      -1.494355624492251
    ],
    [
      -1.3095844060558326,
      1.3750054628985984
    ],
    [
      -1.2062848811342843,
      1.3375292957764588
    ]
  ],
  "b2": [
    [
      -0.10551815186669913,
      0.10551815186669915
    ]
  ],
  "metrics": {
    "accuracy": 0.900990099009901,
    "precision": 0.9375,
    "recall": 0.8653846153846154,
    "f1_score": 0.9
  }
}